<?xml version="1.0" encoding="utf-8"?>
<Project ToolsVersion="4.0" xmlns="http://schemas.microsoft.com/developer/msbuild/2003">
  <ItemGroup>
    <Filter Include="Source Files">
      <UniqueIdentifier>{4FC737F1-C7A5-4376-A066-2A32D752A2FF}</UniqueIdentifier>
      <Extensions>cpp;c;cc;cxx;def;odl;idl;hpj;bat;asm;asmx</Extensions>
    </Filter>
    <Filter Include="Header Files">
      <UniqueIdentifier>{93995380-89BD-4b04-88EB-625FBE52EBFB}</UniqueIdentifier>
      <Extensions>h;hh;hpp;hxx;hm;inl;inc;xsd</Extensions>
    </Filter>
    <Filter Include="Resource Files">
      <UniqueIdentifier>{67DA6AB6-F800-4c08-8B7A-83BB121AAD01}</UniqueIdentifier>
      <Extensions>rc;ico;cur;bmp;dlg;rc2;rct;bin;rgs;gif;jpg;jpeg;jpe;resx;tiff;tif;png;wav</Extensions>
    </Filter>
  </ItemGroup>
  <ItemGroup>
    <ClCompile Include="src\Cluster.cpp">
      <Filter>Source Files</Filter>
    </ClCompile>
    <ClCompile Include="src\ExhaustiveCropper.cpp">
      <Filter>Source Files</Filter>
    </ClCompile>
    <ClCompile Include="src\Feature.cpp">
      <Filter>Source Files</Filter>
    </ClCompile>
    <ClCompile Include="src\FeatureLoader.cpp">
      <Filter>Source Files</Filter>
    </ClCompile>
    <ClCompile Include="src\FeaturePartitioner.cpp">
      <Filter>Source Files</Filter>
    </ClCompile>
    <ClCompile Include="src\FeaturePCA.cpp">
      <Filter>Source Files</Filter>
    </ClCompile>
    <ClCompile Include="src\FeatureWriter.cpp">
      <Filter>Source Files</Filter>
    </ClCompile>
    <ClCompile Include="src\FLANNDetector.cpp">
      <Filter>Source Files</Filter>
    </ClCompile>
    <ClCompile Include="src\HoGAlignmentDetector.cpp">
      <Filter>Source Files</Filter>
    </ClCompile>
    <ClCompile Include="src\Image.cpp">
      <Filter>Source Files</Filter>
    </ClCompile>
    <ClCompile Include="src\ImageCropper.cpp">
      <Filter>Source Files</Filter>
    </ClCompile>
    <ClCompile Include="src\KNNDetector.cpp">
      <Filter>Source Files</Filter>
    </ClCompile>
    <ClCompile Include="src\LatentDetector.cpp">
      <Filter>Source Files</Filter>
    </ClCompile>
    <ClCompile Include="src\PatchClassDetector.cpp">
      <Filter>Source Files</Filter>
    </ClCompile>
    <ClCompile Include="src\PatchDetector.cpp">
      <Filter>Source Files</Filter>
    </ClCompile>
    <ClCompile Include="src\RandomCropper.cpp">
      <Filter>Source Files</Filter>
    </ClCompile>
    <ClCompile Include="src\SVMDetector.cpp">
      <Filter>Source Files</Filter>
    </ClCompile>
    <ClCompile Include="src\Transform.cpp">
      <Filter>Source Files</Filter>
    </ClCompile>
    <ClCompile Include="src\TwoStageDetector.cpp">
      <Filter>Source Files</Filter>
    </ClCompile>
    <ClCompile Include="src\VoronoiDetector.cpp">
      <Filter>Source Files</Filter>
    </ClCompile>
    <ClCompile Include="src\utility\main.cpp">
      <Filter>Source Files</Filter>
    </ClCompile>
  </ItemGroup>
  <ItemGroup>
    <ClInclude Include="include\Cluster.h">
      <Filter>Header Files</Filter>
    </ClInclude>
    <ClInclude Include="include\ExhaustiveCropper.h">
      <Filter>Header Files</Filter>
    </ClInclude>
    <ClInclude Include="include\Feature.h">
      <Filter>Header Files</Filter>
    </ClInclude>
    <ClInclude Include="include\FeatureLoader.h">
      <Filter>Header Files</Filter>
    </ClInclude>
    <ClInclude Include="include\FeaturePartitioner.h">
      <Filter>Header Files</Filter>
    </ClInclude>
    <ClInclude Include="include\FeaturePCA.h">
      <Filter>Header Files</Filter>
    </ClInclude>
    <ClInclude Include="include\FeatureWriter.h">
      <Filter>Header Files</Filter>
    </ClInclude>
    <ClInclude Include="include\FLANNDetector.h">
      <Filter>Header Files</Filter>
    </ClInclude>
    <ClInclude Include="include\HoGAlignmentDetector.h">
      <Filter>Header Files</Filter>
    </ClInclude>
    <ClInclude Include="include\Image.h">
      <Filter>Header Files</Filter>
    </ClInclude>
    <ClInclude Include="include\ImageCropper.h">
      <Filter>Header Files</Filter>
    </ClInclude>
    <ClInclude Include="include\KNNDetector.h">
      <Filter>Header Files</Filter>
    </ClInclude>
    <ClInclude Include="include\LatentDetector.h">
      <Filter>Header Files</Filter>
    </ClInclude>
    <ClInclude Include="include\PatchClassDetector.h">
      <Filter>Header Files</Filter>
    </ClInclude>
    <ClInclude Include="include\PatchDetector.h">
      <Filter>Header Files</Filter>
    </ClInclude>
    <ClInclude Include="include\RandomCropper.h">
      <Filter>Header Files</Filter>
    </ClInclude>
    <ClInclude Include="include\Result.h">
      <Filter>Header Files</Filter>
    </ClInclude>
    <ClInclude Include="include\SVMDetector.h">
      <Filter>Header Files</Filter>
    </ClInclude>
    <ClInclude Include="include\Transform.h">
      <Filter>Header Files</Filter>
    </ClInclude>
    <ClInclude Include="include\TwoStageDetector.h">
      <Filter>Header Files</Filter>
    </ClInclude>
    <ClInclude Include="include\VoronoiDetector.h">
      <Filter>Header Files</Filter>
    </ClInclude>
  </ItemGroup>
</Project>